SVM-light Version V6.02
0 # kernel type
3 # kernel parameter -d 
1 # kernel parameter -g 
1 # kernel parameter -s 
1 # kernel parameter -r 
empty# kernel parameter -u 
15 # highest feature index 
3754 # number of training documents 
499 # number of support vectors plus 1 
0.99953839 # threshold b, each following line is a SV (starting with alpha*y)
0.17548864889023729762840275725466 1:1 2:0 3:0 4:0 5:1 6:1 7:1 8:1 9:0 10:0 11:0 12:0 13:1 14:1 15:0 #
0.046208011541212290484992308847723 1:1 2:0 3:0 4:0 5:0 6:1 7:1 8:1 9:0 10:0 11:0 12:0 13:0 14:0 15:0 #
0.17548864889023729762840275725466 1:1 2:0 3:0 4:0 5:1 6:1 7:1 8:1 9:0 10:0 11:0 12:0 13:0 14:0 15:0 #
0.17548864889023729762840275725466 1:1 2:0 3:0 4:0 5:1 6:1 7:1 8:1 9:1 10:0 11:0 12:0 13:0 14:0 15:0 #
0.001540051607767545238658613016014 1:0 2:0 3:0 4:0 5:1 6:1 7:1 8:1 9:0 10:0 11:1 12:1 13:0 14:0 15:0 #
0.17548864889023729762840275725466 1:0 2:0 3:0 4:0 5:0 6:1 7:0 8:0 9:0 10:0 11:0 12:1 13:0 14:0 15:0 #
-0.17548864889023729762840275725466 1:1 2:0 3:0 4:0 5:1 6:0 7:1 8:1 9:0 10:1 11:0 12:1 13:1 14:1 15:0 #
0.17548864889023729762840275725466 1:1 2:0 3:0 4:0 5:0 6:0 7:1 8:1 9:0 10:1 11:0 12:0 13:0 14:0 15:0 #
-0.17548864889023729762840275725466 1:1 2:0 3:0 4:0 5:1 6:1 7:1 8:1 9:1 10:0 11:0 12:1 13:0 14:0 15:0 #
-0.17548864889023729762840275725466 1:1 2:0 3:0 4:0 5:1 6:1 7:1 8:1 9:0 10:0 11:0 12:1 13:0 14:0 15:0 #
0.17548864889023729762840275725466 1:0 2:0 3:0 4:0 5:0 6:0 7:1 8:1 9:0 10:1 11:0 12:0 13:0 14:1 15:0 #
0.17548864889023729762840275725466 1:0 2:0 3:0 4:0 5:0 6:0 7:1 8:1 9:0 10:1 11:0 12:0 13:0 14:0 15:0 #
-0.17548864889023729762840275725466 1:0 2:0 3:0 4:0 5:0 6:0 7:1 8:1 9:0 10:1 11:0 12:0 13:0 14:0 15:0 #
0.17548864889023729762840275725466 1:0 2:1 3:0 4:0 5:0 6:0 7:1 8:1 9:0 10:1 11:0 12:0 13:0 14:0 15:0 #
0.17548864889023729762840275725466 1:0 2:0 3:0 4:0 5:0 6:0 7:1 8:1 9:0 10:1 11:0 12:0 13:0 14:0 15:0 #
-0.17548864889023729762840275725466 1:0 2:0 3:0 4:0 5:0 6:0 7:1 8:1 9:0 10:0 11:0 12:0 13:1 14:1 15:0 #
-0.17548864889023729762840275725466 1:0 2:0 3:0 4:0 5:0 6:1 7:0 8:0 9:0 10:0 11:0 12:0 13:1 14:1 15:0 #
0.17548864889023729762840275725466 1:0 2:1 3:0 4:0 5:1 6:1 7:1 8:1 9:1 10:1 11:0 12:0 13:0 14:0 15:0 #
0.17548864889023729762840275725466 1:0 2:0 3:0 4:0 5:1 6:1 7:1 8:1 9:0 10:1 11:0 12:1 13:0 14:0 15:0 #
-0.17548864889023729762840275725466 1:0 2:1 3:0 4:1 5:1 6:1 7:1 8:1 9:1 10:1 11:0 12:1 13:0 14:0 15:0 #
-0.17548864889023729762840275725466 1:1 2:0 3:1 4:0 5:1 6:1 7:1 8:1 9:1 10:1 11:0 12:1 13:0 14:0 15:0 #
0.17548864889023729762840275725466 1:0 2:0 3:0 4:0 5:0 6:0 7:0 8:0 9:0 10:0 11:0 12:0 13:0 14:1 15:0 #
0.17548864889023729762840275725466 1:0 2:0 3:0 4:0 5:1 6:1 7:0 8:0 9:1 10:0 11:0 12:0 13:1 14:1 15:0 #
0.17548864889023729762840275725466 1:0 2:0 3:0 4:0 5:0 6:0 7:1 8:1 9:0 10:0 11:0 12:0 13:1 14:0 15:0 #
0.13733452585235705889488144748611 1:1 2:0 3:0 4:0 5:1 6:0 7:1 8:1 9:0 10:0 11:0 12:0 13:0 14:0 15:0 #
-0.17548864889023729762840275725466 1:0 2:0 3:0 4:0 5:1 6:1 7:1 8:1 9:0 10:0 11:0 12:0 13:1 14:1 15:0 #
-0.17548864889023729762840275725466 1:0 2:0 3:0 4:0 5:1 6:1 7:1 8:1 9:1 10:1 11:0 12:0 13:0 14:1 15:0 #
-0.17548864889023729762840275725466 1:1 2:0 3:1 4:0 5:1 6:1 7:1 8:1 9:1 10:1 11:0 12:1 13:0 14:0 15:0 #
-0.17548864889023729762840275725466 1:0 2:0 3:0 4:0 5:1 6:1 7:0 8:0 9:0 10:0 11:1 12:1 13:0 14:0 15:0 #
-0.17548864889023729762840275725466 1:0 2:1 3:0 4:1 5:1 6:1 7:1 8:1 9:1 10:1 11:0 12:1 13:0 14:0 15:0 #
-0.17548864889023729762840275725466 1:1 2:0 3:1 4:0 5:0 6:0 7:1 8:1 9:0 10:1 11:0 12:1 13:0 14:0 15:0 #
0.17548864889023729762840275725466 1:0 2:0 3:0 4:0 5:1 6:0 7:1 8:1 9:0 10:0 11:0 12:0 13:1 14:1 15:0 #
0.17548864889023729762840275725466 1:0 2:0 3:0 4:0 5:1 6:1 7:1 8:1 9:0 10:0 11:0 12:0 13:1 14:1 15:0 #
0.17548864889023729762840275725466 1:0 2:0 3:0 4:0 5:0 6:1 7:1 8:1 9:0 10:0 11:0 12:0 13:0 14:1 15:0 #
0.17548864889023729762840275725466 1:1 2:0 3:0 4:0 5:0 6:1 7:1 8:1 9:0 10:0 11:0 12:0 13:1 14:1 15:0 #
-0.17548864889023729762840275725466 1:0 2:0 3:0 4:0 5:1 6:1 7:1 8:1 9:0 10:0 11:0 12:0 13:1 14:1 15:0 #
-0.17548864889023729762840275725466 1:1 2:0 3:0 4:0 5:1 6:1 7:1 8:1 9:0 10:0 11:0 12:0 13:1 14:1 15:0 #
-0.15276082274102598113074691354996 1:0 2:0 3:0 4:0 5:1 6:1 7:1 8:1 9:1 10:0 11:0 12:0 13:1 14:1 15:0 #
0.17548864889023729762840275725466 1:1 2:0 3:0 4:0 5:1 6:1 7:1 8:1 9:0 10:0 11:0 12:0 13:0 14:0 15:0 #
0.092565583058959621798322814356652 1:0 2:0 3:0 4:1 5:1 6:1 7:1 8:1 9:1 10:1 11:0 12:1 13:1 14:1 15:0 #
-0.17548864889023729762840275725466 1:1 2:1 3:0 4:0 5:1 6:1 7:1 8:1 9:1 10:0 11:0 12:0 13:0 14:1 15:0 #
-0.17548864889023729762840275725466 1:0 2:1 3:0 4:1 5:1 6:1 7:1 8:1 9:0 10:0 11:0 12:1 13:0 14:0 15:0 #
0.17548864889023729762840275725466 1:0 2:0 3:0 4:0 5:1 6:1 7:1 8:1 9:1 10:1 11:0 12:1 13:0 14:0 15:0 #
-0.17548864889023729762840275725466 1:1 2:1 3:0 4:0 5:0 6:0 7:1 8:1 9:0 10:1 11:0 12:0 13:1 14:0 15:0 #
-0.17548864889023729762840275725466 1:0 2:0 3:0 4:0 5:1 6:1 7:1 8:1 9:1 10:1 11:0 12:0 13:1 14:0 15:0 #
0.17548864889023729762840275725466 1:0 2:0 3:1 4:0 5:1 6:1 7:1 8:1 9:0 10:0 11:0 12:1 13:0 14:0 15:0 #
-0.17548864889023729762840275725466 1:0 2:0 3:0 4:0 5:1 6:0 7:1 8:1 9:0 10:0 11:0 12:0 13:0 14:0 15:0 #
-0.17548864889023729762840275725466 1:0 2:0 3:1 4:0 5:0 6:1 7:1 8:1 9:0 10:0 11:0 12:1 13:0 14:0 15:0 #
-0.17548864889023729762840275725466 1:0 2:0 3:0 4:1 5:1 6:0 7:1 8:1 9:0 10:0 11:0 12:1 13:0 14:0 15:0 #
0.17548864889023729762840275725466 1:1 2:0 3:0 4:0 5:1 6:1 7:1 8:1 9:0 10:0 11:0 12:0 13:1 14:0 15:0 #
-0.17548864889023729762840275725466 1:1 2:0 3:0 4:0 5:1 6:1 7:1 8:1 9:0 10:0 11:0 12:1 13:0 14:0 15:0 #
-0.17548864889023729762840275725466 1:1 2:0 3:1 4:0 5:0 6:1 7:1 8:1 9:0 10:0 11:0 12:1 13:0 14:0 15:0 #
-0.17548864889023729762840275725466 1:1 2:0 3:0 4:0 5:0 6:0 7:1 8:1 9:0 10:0 11:0 12:1 13:0 14:0 15:0 #
0.17548864889023729762840275725466 1:0 2:1 3:0 4:0 5:1 6:1 7:1 8:1 9:1 10:1 11:0 12:0 13:1 14:0 15:0 #
0.17548864889023729762840275725466 1:0 2:1 3:0 4:0 5:1 6:1 7:1 8:1 9:1 10:1 11:0 12:0 13:1 14:1 15:0 #
0.17548864889023729762840275725466 1:0 2:0 3:0 4:0 5:1 6:1 7:1 8:1 9:1 10:1 11:0 12:0 13:1 14:0 15:0 #
-0.17548864889023729762840275725466 1:0 2:0 3:0 4:0 5:1 6:1 7:1 8:1 9:0 10:1 11:0 12:0 13:1 14:1 15:0 #
-0.17548864889023729762840275725466 1:0 2:0 3:0 4:0 5:1 6:1 7:0 8:0 9:1 10:0 11:0 12:0 13:1 14:0 15:0 #
-0.17548864889023729762840275725466 1:0 2:0 3:0 4:0 5:1 6:1 7:1 8:1 9:1 10:0 11:0 12:0 13:1 14:0 15:0 #
0.17548864889023729762840275725466 1:1 2:0 3:0 4:0 5:0 6:0 7:1 8:1 9:0 10:0 11:0 12:0 13:0 14:0 15:0 #
-0.17548864889023729762840275725466 1:0 2:1 3:0 4:0 5:1 6:1 7:1 8:1 9:1 10:0 11:0 12:0 13:0 14:0 15:0 #
-0.17548864889023729762840275725466 1:0 2:0 3:0 4:0 5:0 6:0 7:1 8:1 9:0 10:1 11:0 12:0 13:1 14:0 15:0 #
-0.17548864889023729762840275725466 1:0 2:0 3:0 4:0 5:0 6:0 7:1 8:1 9:0 10:1 11:0 12:0 13:0 14:1 15:0 #
0.17548864889023729762840275725466 1:1 2:0 3:0 4:0 5:0 6:1 7:1 8:1 9:0 10:0 11:0 12:0 13:0 14:1 15:0 #
-0.17548864889023729762840275725466 1:1 2:0 3:1 4:0 5:0 6:0 7:1 8:1 9:0 10:1 11:0 12:1 13:0 14:0 15:0 #
-0.17548864889023729762840275725466 1:1 2:0 3:0 4:0 5:0 6:0 7:1 8:1 9:0 10:1 11:0 12:1 13:0 14:0 15:0 #
0.17506390992834175435177712643053 1:0 2:0 3:1 4:0 5:1 6:1 7:0 8:0 9:1 10:0 11:0 12:1 13:1 14:0 15:0 #
0.17548864889023729762840275725466 1:0 2:0 3:0 4:0 5:1 6:1 7:0 8:0 9:0 10:0 11:0 12:0 13:0 14:0 15:0 #
-0.17548864889023729762840275725466 1:0 2:0 3:0 4:0 5:0 6:1 7:1 8:1 9:0 10:1 11:0 12:0 13:0 14:1 15:0 #
-0.17548864889023729762840275725466 1:0 2:0 3:0 4:0 5:0 6:1 7:0 8:0 9:0 10:0 11:0 12:0 13:1 14:1 15:0 #
-0.062883595840163647450182793363638 1:0 2:0 3:0 4:0 5:0 6:1 7:0 8:0 9:0 10:0 11:0 12:0 13:0 14:1 15:0 #
-0.17548864889023729762840275725466 1:1 2:0 3:0 4:0 5:1 6:1 7:1 8:1 9:0 10:0 11:0 12:0 13:0 14:1 15:0 #
0.17548864889023729762840275725466 1:0 2:0 3:0 4:0 5:0 6:0 7:1 8:1 9:0 10:1 11:0 12:0 13:1 14:0 15:0 #
-0.17548864889023729762840275725466 1:0 2:0 3:1 4:1 5:0 6:0 7:1 8:1 9:0 10:1 11:0 12:1 13:0 14:0 15:0 #
-0.17548864889023729762840275725466 1:0 2:0 3:1 4:0 5:0 6:0 7:1 8:1 9:0 10:1 11:0 12:1 13:0 14:0 15:0 #
-0.05694709844564360690100102146971 1:0 2:0 3:0 4:0 5:0 6:1 7:0 8:0 9:0 10:0 11:0 12:0 13:1 14:0 15:0 #
-0.062160526223047019023226766876178 1:0 2:0 3:0 4:0 5:0 6:0 7:0 8:0 9:0 10:0 11:0 12:0 13:1 14:1 15:0 #
0.060120394281761239951844544293635 1:1 2:0 3:0 4:0 5:1 6:1 7:1 8:1 9:1 10:1 11:0 12:0 13:1 14:1 15:0 #
-0.17548864889023729762840275725466 1:1 2:0 3:0 4:0 5:1 6:1 7:1 8:1 9:1 10:1 11:0 12:1 13:0 14:1 15:0 #
-0.17548864889023729762840275725466 1:0 2:0 3:0 4:0 5:1 6:1 7:1 8:1 9:1 10:1 11:0 12:1 13:0 14:1 15:0 #
0.17548864889023729762840275725466 1:0 2:0 3:1 4:0 5:1 6:1 7:0 8:0 9:0 10:0 11:0 12:1 13:0 14:0 15:0 #
0.17548864889023729762840275725466 1:0 2:1 3:0 4:0 5:1 6:1 7:0 8:0 9:0 10:0 11:0 12:0 13:0 14:0 15:0 #
0.17548864889023729762840275725466 1:0 2:1 3:0 4:0 5:1 6:1 7:0 8:0 9:0 10:0 11:0 12:0 13:0 14:1 15:0 #
0.17548864889023729762840275725466 1:0 2:0 3:1 4:0 5:0 6:1 7:0 8:0 9:0 10:0 11:0 12:1 13:0 14:0 15:0 #
-0.17548864889023729762840275725466 1:0 2:1 3:0 4:0 5:0 6:1 7:0 8:0 9:0 10:0 11:0 12:0 13:0 14:0 15:0 #
0.17548864889023729762840275725466 1:1 2:0 3:0 4:0 5:1 6:1 7:1 8:1 9:0 10:0 11:0 12:0 13:1 14:1 15:0 #
-0.17548864889023729762840275725466 1:0 2:1 3:0 4:0 5:0 6:1 7:0 8:0 9:0 10:0 11:0 12:0 13:0 14:0 15:0 #
0.17548864889023729762840275725466 1:1 2:0 3:0 4:0 5:1 6:1 7:1 8:1 9:1 10:1 11:0 12:0 13:0 14:0 15:0 #
0.17548864889023729762840275725466 1:0 2:0 3:0 4:0 5:0 6:0 7:1 8:1 9:0 10:0 11:0 12:0 13:0 14:0 15:0 #
-0.17548864889023729762840275725466 1:0 2:0 3:0 4:0 5:1 6:1 7:0 8:0 9:0 10:0 11:0 12:0 13:0 14:0 15:0 #
-0.17548864889023729762840275725466 1:0 2:0 3:0 4:0 5:0 6:0 7:1 8:1 9:0 10:0 11:0 12:0 13:0 14:1 15:0 #
0.17548864889023729762840275725466 1:0 2:1 3:0 4:0 5:1 6:1 7:1 8:1 9:0 10:0 11:0 12:0 13:0 14:0 15:0 #
0.17548864889023729762840275725466 1:0 2:0 3:0 4:0 5:0 6:1 7:0 8:0 9:0 10:0 11:0 12:0 13:0 14:0 15:0 #
-0.17548864889023729762840275725466 1:0 2:0 3:0 4:0 5:0 6:1 7:1 8:1 9:0 10:0 11:0 12:0 13:0 14:1 15:0 #
0.17506042445808223106951118097641 1:0 2:0 3:1 4:0 5:1 6:1 7:1 8:1 9:1 10:0 11:0 12:1 13:0 14:0 15:0 #
0.17548864889023729762840275725466 1:0 2:1 3:0 4:0 5:0 6:1 7:0 8:0 9:0 10:0 11:0 12:0 13:0 14:0 15:0 #
-0.17548864889023729762840275725466 1:0 2:1 3:0 4:0 5:0 6:1 7:1 8:1 9:0 10:0 11:0 12:0 13:0 14:0 15:0 #
-0.17548864889023729762840275725466 1:1 2:1 3:0 4:0 5:1 6:1 7:1 8:1 9:0 10:0 11:0 12:0 13:0 14:0 15:0 #
0.17548864889023729762840275725466 1:1 2:0 3:0 4:0 5:0 6:0 7:1 8:1 9:0 10:0 11:0 12:0 13:0 14:1 15:0 #
0.17548864889023729762840275725466 1:1 2:0 3:0 4:0 5:0 6:0 7:1 8:1 9:0 10:1 11:0 12:0 13:0 14:1 15:0 #
-0.17548864889023729762840275725466 1:0 2:0 3:0 4:0 5:0 6:0 7:0 8:0 9:0 10:0 11:0 12:0 13:1 14:1 15:0 #
0.17548864889023729762840275725466 1:0 2:1 3:0 4:0 5:1 6:1 7:1 8:1 9:0 10:0 11:0 12:0 13:0 14:0 15:0 #
-0.17548864889023729762840275725466 1:0 2:0 3:0 4:0 5:0 6:0 7:1 8:1 9:0 10:0 11:0 12:0 13:0 14:1 15:0 #
0.17548864889023729762840275725466 1:0 2:1 3:0 4:0 5:0 6:1 7:0 8:0 9:0 10:0 11:0 12:0 13:0 14:0 15:0 #
0.17548864889023729762840275725466 1:0 2:0 3:0 4:0 5:0 6:1 7:0 8:0 9:0 10:0 11:0 12:0 13:0 14:0 15:0 #
0.17548864889023729762840275725466 1:0 2:0 3:0 4:1 5:0 6:1 7:0 8:0 9:0 10:0 11:0 12:1 13:0 14:0 15:0 #
-0.17548864889023729762840275725466 1:0 2:0 3:0 4:0 5:1 6:1 7:0 8:0 9:1 10:0 11:0 12:0 13:0 14:0 15:0 #
0.17548864889023729762840275725466 1:1 2:0 3:0 4:0 5:1 6:1 7:1 8:1 9:0 10:0 11:0 12:0 13:1 14:1 15:0 #
0.17548864889023729762840275725466 1:0 2:0 3:0 4:0 5:1 6:1 7:1 8:1 9:1 10:0 11:0 12:0 13:0 14:0 15:0 #
0.17548864889023729762840275725466 1:0 2:0 3:0 4:0 5:0 6:1 7:1 8:1 9:0 10:0 11:0 12:0 13:0 14:0 15:0 #
-0.17548864889023729762840275725466 1:1 2:1 3:0 4:0 5:1 6:1 7:1 8:1 9:0 10:0 11:0 12:0 13:0 14:0 15:0 #
-0.17548864889023729762840275725466 1:0 2:0 3:0 4:0 5:0 6:1 7:1 8:1 9:0 10:0 11:0 12:0 13:0 14:1 15:0 #
0.17548864889023729762840275725466 1:0 2:0 3:0 4:1 5:1 6:0 7:1 8:1 9:0 10:0 11:0 12:1 13:1 14:1 15:0 #
0.17548864889023729762840275725466 1:1 2:0 3:0 4:0 5:0 6:0 7:1 8:1 9:0 10:1 11:0 12:0 13:1 14:1 15:0 #
0.17548864889023729762840275725466 1:1 2:0 3:0 4:0 5:1 6:1 7:1 8:1 9:1 10:0 11:0 12:0 13:0 14:1 15:0 #
0.17548864889023729762840275725466 1:1 2:0 3:0 4:0 5:1 6:0 7:1 8:1 9:0 10:0 11:0 12:0 13:1 14:1 15:0 #
-0.17548864889023729762840275725466 1:0 2:1 3:0 4:0 5:1 6:0 7:1 8:1 9:0 10:0 11:0 12:0 13:0 14:0 15:0 #
-0.17548864889023729762840275725466 1:0 2:1 3:0 4:0 5:0 6:0 7:1 8:1 9:0 10:0 11:0 12:0 13:0 14:0 15:0 #
-0.17548864889023729762840275725466 1:1 2:1 3:0 4:0 5:1 6:1 7:1 8:1 9:0 10:0 11:0 12:0 13:0 14:0 15:0 #
0.17548864889023729762840275725466 1:0 2:0 3:0 4:0 5:1 6:1 7:1 8:1 9:0 10:0 11:0 12:0 13:0 14:1 15:0 #
-0.17548864889023729762840275725466 1:0 2:0 3:0 4:0 5:1 6:0 7:1 8:1 9:0 10:0 11:0 12:0 13:1 14:1 15:0 #
0.17548864889023729762840275725466 1:0 2:0 3:0 4:0 5:1 6:1 7:1 8:1 9:0 10:1 11:0 12:0 13:0 14:0 15:0 #
-0.17548864889023729762840275725466 1:0 2:0 3:0 4:0 5:1 6:1 7:1 8:1 9:1 10:1 11:0 12:0 13:1 14:1 15:0 #
-0.17548864889023729762840275725466 1:1 2:1 3:0 4:0 5:1 6:1 7:1 8:1 9:0 10:0 11:0 12:0 13:0 14:0 15:0 #
-0.16650725415184752797870260110358 1:0 2:0 3:0 4:0 5:1 6:1 7:1 8:1 9:0 10:0 11:0 12:0 13:1 14:1 15:0 #
0.17548864889023729762840275725466 1:0 2:1 3:0 4:0 5:1 6:1 7:1 8:1 9:0 10:0 11:0 12:0 13:1 14:0 15:0 #
0.17548864889023729762840275725466 1:1 2:0 3:0 4:0 5:1 6:0 7:1 8:1 9:0 10:0 11:0 12:0 13:1 14:1 15:0 #
-0.17548864889023729762840275725466 1:0 2:0 3:0 4:0 5:0 6:1 7:0 8:0 9:0 10:0 11:0 12:0 13:0 14:0 15:0 #
-0.17548864889023729762840275725466 1:0 2:0 3:0 4:0 5:1 6:0 7:1 8:1 9:0 10:0 11:0 12:0 13:1 14:0 15:0 #
-0.17548864889023729762840275725466 1:0 2:1 3:0 4:0 5:0 6:0 7:1 8:1 9:0 10:0 11:0 12:0 13:0 14:0 15:0 #
0.17548864889023729762840275725466 1:0 2:0 3:0 4:0 5:0 6:1 7:1 8:1 9:0 10:0 11:0 12:0 13:0 14:0 15:0 #
-0.17548864889023729762840275725466 1:0 2:0 3:0 4:0 5:0 6:1 7:0 8:0 9:0 10:0 11:0 12:0 13:0 14:0 15:0 #
0.17548864889023729762840275725466 1:0 2:0 3:0 4:0 5:0 6:0 7:1 8:1 9:0 10:0 11:0 12:0 13:0 14:0 15:0 #
0.17548864889023729762840275725466 1:0 2:0 3:0 4:0 5:1 6:1 7:1 8:1 9:0 10:0 11:0 12:0 13:0 14:0 15:0 #
-0.17548864889023729762840275725466 1:0 2:0 3:0 4:0 5:1 6:0 7:1 8:1 9:0 10:0 11:0 12:0 13:0 14:0 15:0 #
0.17548864889023729762840275725466 1:0 2:0 3:0 4:0 5:1 6:1 7:1 8:1 9:0 10:0 11:0 12:0 13:1 14:1 15:0 #
-0.17548864889023729762840275725466 1:0 2:0 3:0 4:0 5:0 6:1 7:1 8:1 9:0 10:0 11:0 12:0 13:0 14:1 15:0 #
-0.17548864889023729762840275725466 1:0 2:0 3:0 4:0 5:0 6:0 7:1 8:1 9:0 10:0 11:0 12:0 13:0 14:1 15:0 #
0.17548864889023729762840275725466 1:0 2:0 3:0 4:0 5:1 6:1 7:1 8:1 9:0 10:0 11:0 12:0 13:1 14:0 15:0 #
0.17548864889023729762840275725466 1:0 2:1 3:0 4:0 5:1 6:1 7:1 8:1 9:0 10:0 11:0 12:0 13:1 14:0 15:0 #
-0.17548864889023729762840275725466 1:0 2:0 3:0 4:0 5:1 6:1 7:1 8:1 9:0 10:0 11:0 12:0 13:1 14:0 15:0 #
-0.17548864889023729762840275725466 1:0 2:1 3:0 4:0 5:1 6:1 7:1 8:1 9:0 10:0 11:0 12:0 13:0 14:0 15:0 #
0.17548864889023729762840275725466 1:1 2:0 3:0 4:0 5:0 6:0 7:1 8:1 9:0 10:0 11:0 12:0 13:0 14:1 15:0 #
0.17548864889023729762840275725466 1:0 2:0 3:0 4:0 5:0 6:0 7:1 8:1 9:0 10:0 11:0 12:0 13:0 14:0 15:0 #
0.17548864889023729762840275725466 1:1 2:0 3:0 4:0 5:1 6:1 7:1 8:1 9:0 10:0 11:0 12:0 13:1 14:1 15:0 #
-0.17113044278423045208015196294582 1:0 2:0 3:0 4:0 5:0 6:0 7:0 8:0 9:0 10:0 11:0 12:0 13:0 14:0 15:0 #
-0.17548864889023729762840275725466 1:0 2:0 3:0 4:0 5:0 6:0 7:1 8:1 9:0 10:0 11:0 12:0 13:0 14:1 15:0 #
0.17548864889023729762840275725466 1:0 2:0 3:0 4:0 5:1 6:1 7:1 8:1 9:0 10:0 11:0 12:0 13:0 14:0 15:0 #
0.17548864889023729762840275725466 1:0 2:1 3:0 4:0 5:1 6:1 7:1 8:1 9:1 10:0 11:0 12:0 13:0 14:0 15:0 #
0.17548864889023729762840275725466 1:0 2:1 3:0 4:0 5:1 6:1 7:1 8:1 9:0 10:0 11:0 12:0 13:0 14:0 15:0 #
-0.17548864889023729762840275725466 1:0 2:0 3:0 4:0 5:1 6:1 7:1 8:1 9:0 10:0 11:0 12:0 13:1 14:0 15:0 #
-0.17548864889023729762840275725466 1:0 2:1 3:0 4:0 5:1 6:1 7:1 8:1 9:0 10:0 11:0 12:0 13:0 14:0 15:0 #
-0.17548864889023729762840275725466 1:0 2:0 3:0 4:0 5:1 6:1 7:1 8:1 9:0 10:0 11:0 12:0 13:0 14:0 15:0 #
0.17548864889023729762840275725466 1:0 2:0 3:0 4:0 5:0 6:0 7:1 8:1 9:0 10:1 11:0 12:0 13:0 14:0 15:0 #
-0.17548864889023729762840275725466 1:0 2:0 3:0 4:0 5:0 6:0 7:1 8:1 9:0 10:0 11:0 12:0 13:0 14:0 15:0 #
0.17548864889023729762840275725466 1:0 2:0 3:0 4:0 5:0 6:0 7:1 8:1 9:0 10:1 11:0 12:0 13:1 14:1 15:0 #
-0.17548864889023729762840275725466 1:0 2:0 3:0 4:0 5:0 6:1 7:1 8:1 9:0 10:0 11:0 12:0 13:1 14:0 15:0 #
0.17548864889023729762840275725466 1:0 2:1 3:0 4:0 5:0 6:1 7:0 8:0 9:0 10:0 11:0 12:0 13:0 14:0 15:0 #
0.17548864889023729762840275725466 1:0 2:1 3:0 4:0 5:1 6:1 7:1 8:1 9:0 10:0 11:0 12:0 13:0 14:0 15:0 #
-0.17548864889023729762840275725466 1:0 2:0 3:0 4:0 5:1 6:1 7:0 8:0 9:1 10:0 11:0 12:0 13:0 14:0 15:0 #
-0.17548864889023729762840275725466 1:0 2:0 3:0 4:0 5:1 6:1 7:0 8:0 9:0 10:0 11:0 12:0 13:0 14:0 15:0 #
0.17548864889023729762840275725466 1:0 2:0 3:0 4:0 5:0 6:0 7:1 8:1 9:0 10:0 11:0 12:1 13:1 14:0 15:0 #
0.17548864889023729762840275725466 1:1 2:0 3:0 4:0 5:0 6:1 7:1 8:1 9:0 10:0 11:0 12:0 13:1 14:0 15:0 #
-0.17548864889023729762840275725466 1:0 2:0 3:0 4:0 5:0 6:1 7:1 8:1 9:0 10:0 11:0 12:0 13:1 14:0 15:0 #
-0.17548864889023729762840275725466 1:0 2:0 3:0 4:0 5:0 6:0 7:1 8:1 9:0 10:0 11:0 12:0 13:0 14:1 15:0 #
0.17548864889023729762840275725466 1:0 2:0 3:0 4:0 5:1 6:1 7:0 8:0 9:1 10:0 11:0 12:1 13:0 14:1 15:0 #
0.17548864889023729762840275725466 1:0 2:0 3:0 4:0 5:1 6:1 7:0 8:0 9:0 10:0 11:0 12:1 13:0 14:0 15:0 #
-0.17548864889023729762840275725466 1:0 2:0 3:0 4:0 5:1 6:1 7:0 8:0 9:0 10:0 11:0 12:0 13:0 14:0 15:0 #
0.17548864889023729762840275725466 1:0 2:0 3:0 4:0 5:0 6:0 7:1 8:1 9:0 10:1 11:0 12:0 13:0 14:0 15:0 #
0.17548864889023729762840275725466 1:1 2:0 3:0 4:0 5:0 6:0 7:1 8:1 9:0 10:0 11:0 12:0 13:0 14:1 15:0 #
0.17548864889023729762840275725466 1:1 2:0 3:0 4:0 5:1 6:0 7:1 8:1 9:0 10:0 11:0 12:0 13:0 14:1 15:0 #
-0.17548864889023729762840275725466 1:0 2:0 3:0 4:0 5:1 6:0 7:1 8:1 9:0 10:0 11:0 12:0 13:1 14:0 15:0 #
-0.17548864889023729762840275725466 1:0 2:0 3:0 4:0 5:1 6:0 7:1 8:1 9:0 10:0 11:0 12:0 13:0 14:0 15:0 #
0.17548864889023729762840275725466 1:0 2:0 3:0 4:0 5:0 6:1 7:0 8:0 9:0 10:0 11:0 12:1 13:0 14:0 15:0 #
-0.17548864889023729762840275725466 1:0 2:0 3:0 4:0 5:0 6:1 7:0 8:0 9:0 10:0 11:0 12:0 13:0 14:0 15:0 #
0.17548864889023729762840275725466 1:0 2:0 3:0 4:0 5:1 6:0 7:1 8:1 9:0 10:1 11:0 12:0 13:0 14:1 15:0 #
0.17548864889023729762840275725466 1:0 2:0 3:0 4:0 5:1 6:1 7:1 8:1 9:1 10:1 11:0 12:0 13:1 14:0 15:0 #
-0.17548864889023729762840275725466 1:0 2:0 3:0 4:0 5:0 6:1 7:1 8:1 9:0 10:0 11:0 12:0 13:0 14:0 15:0 #
0.17548864889023729762840275725466 1:0 2:0 3:0 4:0 5:0 6:0 7:1 8:1 9:0 10:1 11:0 12:0 13:0 14:0 15:0 #
-0.17548864889023729762840275725466 1:0 2:0 3:0 4:0 5:0 6:0 7:1 8:1 9:0 10:0 11:0 12:0 13:0 14:0 15:0 #
0.17548864889023729762840275725466 1:1 2:0 3:0 4:0 5:1 6:1 7:1 8:1 9:1 10:0 11:0 12:0 13:1 14:1 15:0 #
0.17548864889023729762840275725466 1:1 2:0 3:0 4:0 5:1 6:0 7:1 8:1 9:0 10:0 11:0 12:0 13:1 14:1 15:0 #
0.17548864889023729762840275725466 1:0 2:0 3:0 4:0 5:1 6:1 7:1 8:1 9:1 10:1 11:0 12:0 13:1 14:1 15:0 #
-0.17548864889023729762840275725466 1:1 2:0 3:0 4:0 5:1 6:1 7:1 8:1 9:1 10:1 11:0 12:1 13:0 14:1 15:0 #
-0.17548864889023729762840275725466 1:1 2:0 3:1 4:0 5:1 6:1 7:1 8:1 9:1 10:1 11:0 12:1 13:0 14:0 15:0 #
-0.17548864889023729762840275725466 1:1 2:1 3:0 4:0 5:1 6:1 7:1 8:1 9:1 10:1 11:0 12:0 13:0 14:0 15:0 #
-0.044841117708107780526205488058622 1:0 2:0 3:0 4:0 5:1 6:1 7:1 8:1 9:1 10:1 11:0 12:0 13:1 14:1 15:0 #
0.17548864889023729762840275725466 1:0 2:0 3:1 4:0 5:1 6:1 7:1 8:1 9:0 10:0 11:0 12:1 13:0 14:0 15:0 #
0.17548864889023729762840275725466 1:0 2:0 3:0 4:0 5:1 6:1 7:1 8:1 9:0 10:0 11:0 12:1 13:1 14:0 15:0 #
-0.17548864889023729762840275725466 1:1 2:0 3:0 4:0 5:0 6:0 7:1 8:1 9:0 10:1 11:0 12:1 13:0 14:0 15:0 #
-0.17548864889023729762840275725466 1:1 2:0 3:0 4:0 5:0 6:0 7:1 8:1 9:0 10:0 11:0 12:1 13:0 14:0 15:0 #
-0.17548864889023729762840275725466 1:1 2:0 3:0 4:0 5:1 6:1 7:1 8:1 9:0 10:0 11:0 12:1 13:0 14:0 15:0 #
0.17548864889023729762840275725466 1:0 2:0 3:0 4:0 5:1 6:1 7:1 8:1 9:1 10:1 11:0 12:0 13:0 14:1 15:0 #
0.17548864889023729762840275725466 1:0 2:0 3:0 4:0 5:1 6:1 7:1 8:1 9:1 10:1 11:0 12:0 13:0 14:0 15:0 #
-0.17548864889023729762840275725466 1:0 2:0 3:0 4:0 5:1 6:1 7:1 8:1 9:1 10:1 11:0 12:0 13:1 14:1 15:0 #
0.17548864889023729762840275725466 1:1 2:0 3:0 4:0 5:0 6:0 7:1 8:1 9:0 10:0 11:0 12:0 13:0 14:0 15:0 #
-0.17548864889023729762840275725466 1:1 2:0 3:0 4:0 5:0 6:0 7:1 8:1 9:0 10:1 11:0 12:1 13:0 14:0 15:0 #
-0.17548864889023729762840275725466 1:0 2:1 3:0 4:0 5:0 6:0 7:1 8:1 9:0 10:1 11:0 12:0 13:0 14:1 15:0 #
0.17548864889023729762840275725466 1:1 2:0 3:0 4:0 5:1 6:1 7:1 8:1 9:1 10:0 11:0 12:0 13:1 14:0 15:0 #
-0.17548864889023729762840275725466 1:0 2:0 3:0 4:0 5:1 6:1 7:1 8:1 9:1 10:1 11:0 12:0 13:1 14:1 15:0 #
0.17548864889023729762840275725466 1:0 2:0 3:1 4:0 5:0 6:0 7:1 8:1 9:0 10:1 11:0 12:1 13:0 14:0 15:0 #
0.17548864889023729762840275725466 1:0 2:0 3:0 4:0 5:0 6:0 7:1 8:1 9:0 10:1 11:0 12:0 13:0 14:0 15:0 #
-0.17548864889023729762840275725466 1:1 2:1 3:0 4:0 5:1 6:1 7:1 8:1 9:1 10:1 11:0 12:0 13:0 14:0 15:0 #
-0.17548864889023729762840275725466 1:0 2:0 3:0 4:0 5:1 6:0 7:1 8:1 9:0 10:0 11:0 12:1 13:0 14:0 15:0 #
-0.17548864889023729762840275725466 1:0 2:0 3:1 4:0 5:0 6:0 7:1 8:1 9:0 10:1 11:0 12:1 13:0 14:0 15:0 #
-0.17548864889023729762840275725466 1:1 2:0 3:0 4:0 5:0 6:0 7:1 8:1 9:0 10:1 11:0 12:1 13:0 14:0 15:0 #
-0.17260322252268522902340919245034 1:0 2:0 3:0 4:0 5:1 6:1 7:0 8:0 9:0 10:0 11:0 12:0 13:0 14:0 15:0 #
0.17548864889023729762840275725466 1:0 2:0 3:0 4:0 5:1 6:1 7:1 8:1 9:1 10:1 11:0 12:0 13:0 14:1 15:0 #
0.17548864889023729762840275725466 1:0 2:0 3:0 4:0 5:1 6:1 7:1 8:1 9:1 10:1 11:0 12:0 13:0 14:0 15:0 #
-0.17548864889023729762840275725466 1:0 2:0 3:0 4:0 5:1 6:1 7:1 8:1 9:1 10:1 11:0 12:0 13:1 14:1 15:0 #
0.17548864889023729762840275725466 1:1 2:0 3:0 4:0 5:0 6:0 7:1 8:1 9:0 10:0 11:0 12:0 13:0 14:0 15:0 #
-0.17548864889023729762840275725466 1:1 2:1 3:0 4:0 5:1 6:1 7:1 8:1 9:1 10:1 11:0 12:0 13:0 14:0 15:0 #
-0.17548864889023729762840275725466 1:1 2:0 3:0 4:0 5:1 6:1 7:1 8:1 9:1 10:1 11:0 12:0 13:0 14:0 15:0 #
0.17548864889023729762840275725466 1:0 2:0 3:0 4:0 5:1 6:1 7:1 8:1 9:0 10:0 11:0 12:1 13:1 14:1 15:0 #
0.17548864889023729762840275725466 1:0 2:0 3:0 4:0 5:0 6:0 7:1 8:1 9:0 10:1 11:0 12:0 13:0 14:0 15:0 #
-0.17548864889023729762840275725466 1:0 2:0 3:0 4:0 5:0 6:0 7:1 8:1 9:0 10:1 11:0 12:0 13:1 14:1 15:0 #
-0.17548864889023729762840275725466 1:0 2:0 3:0 4:1 5:1 6:1 7:1 8:1 9:1 10:0 11:0 12:1 13:0 14:0 15:0 #
-0.16291276816285682471630025247578 1:0 2:0 3:0 4:0 5:1 6:1 7:1 8:1 9:0 10:0 11:0 12:0 13:0 14:1 15:0 #
0.17548864889023729762840275725466 1:0 2:0 3:0 4:0 5:0 6:0 7:1 8:1 9:0 10:1 11:0 12:0 13:0 14:0 15:0 #
0.17548864889023729762840275725466 1:0 2:0 3:0 4:0 5:1 6:1 7:1 8:1 9:1 10:1 11:0 12:0 13:0 14:0 15:0 #
-0.17548864889023729762840275725466 1:0 2:0 3:0 4:0 5:0 6:0 7:1 8:1 9:0 10:1 11:0 12:0 13:1 14:0 15:0 #
-0.17548864889023729762840275725466 1:1 2:0 3:0 4:0 5:1 6:1 7:1 8:1 9:0 10:0 11:0 12:0 13:0 14:0 15:0 #
0.17548864889023729762840275725466 1:0 2:0 3:0 4:1 5:1 6:1 7:1 8:1 9:0 10:0 11:0 12:1 13:0 14:0 15:0 #
0.17548864889023729762840275725466 1:0 2:0 3:0 4:0 5:1 6:1 7:1 8:1 9:0 10:0 11:0 12:1 13:0 14:0 15:0 #
-0.17548864889023729762840275725466 1:0 2:0 3:0 4:0 5:1 6:1 7:0 8:0 9:0 10:0 11:0 12:0 13:0 14:0 15:0 #
-0.17548864889023729762840275725466 1:1 2:0 3:1 4:0 5:1 6:1 7:1 8:1 9:1 10:0 11:0 12:1 13:0 14:1 15:0 #
0.17548864889023729762840275725466 1:0 2:0 3:0 4:0 5:1 6:1 7:1 8:1 9:1 10:1 11:0 12:0 13:1 14:1 15:0 #
-0.17548864889023729762840275725466 1:0 2:0 3:0 4:0 5:1 6:1 7:1 8:1 9:1 10:1 11:0 12:0 13:1 14:1 15:0 #
0.17548864889023729762840275725466 1:1 2:0 3:0 4:0 5:1 6:1 7:1 8:1 9:0 10:0 11:0 12:0 13:0 14:0 15:0 #
-0.17548864889023729762840275725466 1:0 2:0 3:0 4:0 5:0 6:1 7:1 8:1 9:0 10:1 11:0 12:0 13:1 14:0 15:0 #
0.17548864889023729762840275725466 1:1 2:0 3:0 4:0 5:1 6:0 7:1 8:1 9:0 10:0 11:0 12:0 13:0 14:0 15:0 #
-0.17548864889023729762840275725466 1:1 2:0 3:0 4:0 5:1 6:1 7:1 8:1 9:1 10:0 11:0 12:1 13:0 14:0 15:0 #
-0.17548864889023729762840275725466 1:1 2:0 3:0 4:0 5:1 6:1 7:1 8:1 9:1 10:0 11:0 12:0 13:0 14:0 15:0 #
-0.17548864889023729762840275725466 1:1 2:0 3:0 4:0 5:1 6:0 7:1 8:1 9:0 10:0 11:0 12:0 13:0 14:0 15:0 #
0.17548864889023729762840275725466 1:0 2:0 3:0 4:0 5:0 6:0 7:1 8:1 9:0 10:1 11:0 12:0 13:0 14:0 15:0 #
-0.17548864889023729762840275725466 1:0 2:0 3:0 4:0 5:0 6:0 7:1 8:1 9:0 10:1 11:0 12:0 13:1 14:0 15:0 #
-0.17548864889023729762840275725466 1:0 2:0 3:0 4:0 5:1 6:1 7:1 8:1 9:1 10:1 11:0 12:0 13:1 14:0 15:0 #
0.17548864889023729762840275725466 1:1 2:0 3:0 4:0 5:1 6:1 7:1 8:1 9:1 10:0 11:0 12:0 13:0 14:0 15:0 #
-0.17548864889023729762840275725466 1:1 2:1 3:0 4:0 5:1 6:1 7:1 8:1 9:1 10:0 11:0 12:0 13:0 14:0 15:0 #
-0.17548864889023729762840275725466 1:1 2:0 3:0 4:0 5:1 6:0 7:1 8:1 9:0 10:0 11:0 12:0 13:0 14:1 15:0 #
-0.17548864889023729762840275725466 1:1 2:0 3:0 4:0 5:1 6:1 7:1 8:1 9:0 10:0 11:0 12:0 13:0 14:1 15:0 #
-0.17548864889023729762840275725466 1:0 2:0 3:0 4:0 5:0 6:0 7:1 8:1 9:0 10:1 11:0 12:0 13:1 14:1 15:0 #
0.17548864889023729762840275725466 1:0 2:0 3:0 4:0 5:1 6:1 7:1 8:1 9:1 10:1 11:0 12:0 13:0 14:0 15:0 #
-0.17548864889023729762840275725466 1:0 2:0 3:0 4:0 5:1 6:1 7:1 8:1 9:1 10:0 11:0 12:0 13:0 14:1 15:0 #
-0.055615546374409352559098351775901 1:0 2:0 3:0 4:0 5:1 6:1 7:1 8:1 9:1 10:0 11:0 12:0 13:0 14:1 15:0 #
0.17548864889023729762840275725466 1:0 2:0 3:0 4:0 5:1 6:1 7:1 8:1 9:0 10:1 11:0 12:0 13:0 14:0 15:0 #
-0.17548864889023729762840275725466 1:0 2:0 3:0 4:0 5:0 6:0 7:1 8:1 9:0 10:1 11:0 12:0 13:0 14:0 15:0 #
0.17548864889023729762840275725466 1:1 2:0 3:0 4:0 5:1 6:1 7:1 8:1 9:1 10:0 11:0 12:0 13:1 14:0 15:0 #
-0.17548864889023729762840275725466 1:1 2:1 3:0 4:0 5:1 6:1 7:1 8:1 9:1 10:1 11:0 12:0 13:0 14:0 15:0 #
-0.17548864889023729762840275725466 1:1 2:0 3:0 4:0 5:1 6:1 7:1 8:1 9:0 10:0 11:0 12:0 13:1 14:0 15:0 #
0.17548864889023729762840275725466 1:0 2:0 3:0 4:0 5:1 6:1 7:1 8:1 9:0 10:1 11:0 12:0 13:0 14:1 15:0 #
0.17548864889023729762840275725466 1:0 2:0 3:0 4:0 5:1 6:0 7:1 8:1 9:0 10:1 11:1 12:0 13:0 14:0 15:0 #
0.17548864889023729762840275725466 1:1 2:0 3:0 4:0 5:0 6:0 7:1 8:1 9:0 10:0 11:0 12:0 13:0 14:0 15:0 #
0.17548864889023729762840275725466 1:0 2:1 3:0 4:0 5:1 6:1 7:1 8:1 9:1 10:1 11:0 12:0 13:0 14:0 15:0 #
-0.17548864889023729762840275725466 1:1 2:1 3:0 4:0 5:1 6:1 7:1 8:1 9:1 10:0 11:0 12:0 13:0 14:0 15:0 #
-0.17548864889023729762840275725466 1:0 2:0 3:0 4:0 5:1 6:1 7:1 8:1 9:1 10:0 11:0 12:0 13:1 14:0 15:0 #
0.17548864889023729762840275725466 1:1 2:0 3:0 4:0 5:0 6:0 7:1 8:1 9:0 10:0 11:0 12:0 13:0 14:0 15:0 #
-0.17548864889023729762840275725466 1:1 2:1 3:0 4:0 5:0 6:0 7:1 8:1 9:0 10:0 11:0 12:0 13:0 14:0 15:0 #
-0.17548864889023729762840275725466 1:0 2:0 3:0 4:0 5:0 6:0 7:1 8:1 9:0 10:1 11:0 12:0 13:1 14:0 15:0 #
0.17548864889023729762840275725466 1:0 2:0 3:0 4:0 5:1 6:1 7:1 8:1 9:1 10:1 11:0 12:0 13:0 14:1 15:0 #
0.17548864889023729762840275725466 1:0 2:0 3:0 4:0 5:1 6:1 7:1 8:1 9:1 10:1 11:0 12:0 13:0 14:0 15:0 #
-0.17548864889023729762840275725466 1:0 2:0 3:0 4:0 5:1 6:1 7:1 8:1 9:1 10:1 11:0 12:0 13:0 14:1 15:0 #
0.17548864889023729762840275725466 1:1 2:0 3:0 4:0 5:0 6:0 7:1 8:1 9:0 10:0 11:0 12:0 13:0 14:0 15:0 #
-0.17548864889023729762840275725466 1:1 2:0 3:0 4:0 5:1 6:1 7:1 8:1 9:1 10:1 11:0 12:0 13:0 14:0 15:0 #
0.17548864889023729762840275725466 1:1 2:0 3:0 4:0 5:1 6:1 7:1 8:1 9:1 10:0 11:0 12:0 13:1 14:0 15:0 #
-0.17548864889023729762840275725466 1:0 2:0 3:0 4:0 5:0 6:1 7:1 8:1 9:0 10:1 11:0 12:0 13:1 14:1 15:0 #
0.17548864889023729762840275725466 1:0 2:0 3:0 4:0 5:1 6:1 7:1 8:1 9:1 10:1 11:0 12:0 13:0 14:0 15:0 #
-0.17548864889023729762840275725466 1:1 2:0 3:0 4:0 5:1 6:1 7:1 8:1 9:1 10:0 11:0 12:0 13:0 14:0 15:0 #
0.17548864889023729762840275725466 1:1 2:0 3:0 4:0 5:0 6:1 7:1 8:1 9:0 10:0 11:0 12:0 13:1 14:0 15:0 #
0.17548864889023729762840275725466 1:1 2:0 3:0 4:0 5:0 6:0 7:1 8:1 9:0 10:0 11:0 12:0 13:0 14:0 15:0 #
-0.17548864889023729762840275725466 1:1 2:0 3:0 4:0 5:0 6:0 7:1 8:1 9:0 10:0 11:0 12:0 13:0 14:0 15:0 #
0.17548864889023729762840275725466 1:0 2:0 3:0 4:0 5:1 6:1 7:1 8:1 9:1 10:1 11:0 12:0 13:0 14:0 15:0 #
-0.17548864889023729762840275725466 1:0 2:0 3:0 4:0 5:1 6:1 7:1 8:1 9:0 10:1 11:0 12:0 13:1 14:0 15:0 #
-0.14552891925737254652517549402546 1:0 2:0 3:0 4:0 5:1 6:1 7:1 8:1 9:0 10:1 11:0 12:0 13:0 14:1 15:0 #
-0.17548864889023729762840275725466 1:0 2:0 3:0 4:0 5:1 6:1 7:1 8:1 9:0 10:1 11:0 12:0 13:0 14:0 15:0 #
0.17548864889023729762840275725466 1:1 2:0 3:0 4:0 5:1 6:1 7:1 8:1 9:0 10:0 11:0 12:0 13:1 14:1 15:0 #
-0.17548864889023729762840275725466 1:0 2:0 3:0 4:0 5:1 6:1 7:1 8:1 9:1 10:0 11:0 12:0 13:1 14:0 15:0 #
-0.17548864889023729762840275725466 1:1 2:0 3:0 4:0 5:1 6:1 7:1 8:1 9:0 10:0 11:0 12:0 13:1 14:0 15:0 #
-0.17548864889023729762840275725466 1:1 2:0 3:0 4:0 5:1 6:1 7:1 8:1 9:1 10:0 11:0 12:0 13:0 14:0 15:0 #
0.17548864889023729762840275725466 1:0 2:0 3:0 4:1 5:1 6:0 7:1 8:1 9:0 10:1 11:0 12:1 13:0 14:1 15:0 #
-0.17548864889023729762840275725466 1:0 2:0 3:0 4:0 5:1 6:0 7:1 8:1 9:0 10:1 11:0 12:0 13:0 14:1 15:0 #
0.17548864889023729762840275725466 1:1 2:0 3:0 4:0 5:1 6:1 7:1 8:1 9:1 10:0 11:0 12:0 13:1 14:0 15:0 #
0.17548864889023729762840275725466 1:0 2:0 3:0 4:0 5:1 6:1 7:1 8:1 9:1 10:1 11:0 12:0 13:0 14:0 15:0 #
-0.14324975294601738351474295996013 1:0 2:0 3:0 4:0 5:0 6:0 7:1 8:1 9:0 10:1 11:0 12:0 13:0 14:0 15:0 #
-0.17548864889023729762840275725466 1:0 2:0 3:0 4:0 5:0 6:0 7:1 8:1 9:0 10:1 11:0 12:0 13:0 14:0 15:0 #
0.036405054632749678233949452987872 1:0 2:0 3:0 4:0 5:1 6:1 7:1 8:1 9:1 10:1 11:0 12:1 13:1 14:0 15:0 #
-0.17548864889023729762840275725466 1:0 2:0 3:0 4:0 5:1 6:0 7:1 8:1 9:0 10:1 11:0 12:0 13:0 14:0 15:0 #
0.17548864889023729762840275725466 1:0 2:0 3:0 4:0 5:1 6:1 7:1 8:1 9:1 10:1 11:0 12:1 13:0 14:1 15:0 #
0.17548864889023729762840275725466 1:1 2:0 3:0 4:0 5:0 6:0 7:1 8:1 9:0 10:0 11:0 12:0 13:0 14:0 15:0 #
0.17548864889023729762840275725466 1:0 2:1 3:0 4:0 5:1 6:1 7:1 8:1 9:1 10:1 11:0 12:0 13:0 14:0 15:0 #
-0.17548864889023729762840275725466 1:1 2:0 3:0 4:0 5:1 6:1 7:1 8:1 9:1 10:0 11:0 12:0 13:0 14:0 15:0 #
0.17548864889023729762840275725466 1:0 2:0 3:0 4:0 5:1 6:1 7:1 8:1 9:1 10:1 11:0 12:0 13:0 14:0 15:0 #
0.17548864889023729762840275725466 1:0 2:0 3:0 4:0 5:1 6:1 7:1 8:1 9:1 10:1 11:0 12:0 13:0 14:0 15:0 #
-0.17548864889023729762840275725466 1:1 2:0 3:0 4:0 5:1 6:1 7:1 8:1 9:1 10:0 11:0 12:0 13:0 14:0 15:0 #
-0.17548864889023729762840275725466 1:0 2:1 3:0 4:0 5:1 6:1 7:1 8:1 9:1 10:1 11:0 12:0 13:0 14:0 15:0 #
0.17548864889023729762840275725466 1:1 2:0 3:0 4:0 5:0 6:1 7:1 8:1 9:0 10:0 11:0 12:0 13:0 14:0 15:0 #
-0.17548864889023729762840275725466 1:1 2:0 3:0 4:0 5:0 6:0 7:1 8:1 9:0 10:0 11:0 12:0 13:0 14:0 15:0 #
0.17548864889023729762840275725466 1:0 2:0 3:0 4:0 5:1 6:1 7:1 8:1 9:1 10:1 11:0 12:0 13:0 14:0 15:0 #
-0.17548864889023729762840275725466 1:1 2:0 3:0 4:0 5:1 6:1 7:1 8:1 9:1 10:0 11:0 12:0 13:0 14:0 15:0 #
0.17548864889023729762840275725466 1:1 2:0 3:0 4:0 5:0 6:0 7:1 8:1 9:0 10:0 11:0 12:0 13:0 14:0 15:0 #
-0.17548864889023729762840275725466 1:1 2:0 3:0 4:0 5:0 6:0 7:1 8:1 9:0 10:0 11:0 12:0 13:0 14:0 15:0 #
0.17548864889023729762840275725466 1:0 2:0 3:0 4:0 5:1 6:1 7:1 8:1 9:1 10:1 11:0 12:0 13:0 14:0 15:0 #
-0.17548864889023729762840275725466 1:0 2:0 3:0 4:0 5:1 6:1 7:1 8:1 9:1 10:1 11:0 12:0 13:1 14:1 15:0 #
0.17548864889023729762840275725466 1:1 2:0 3:0 4:0 5:0 6:0 7:1 8:1 9:0 10:0 11:0 12:0 13:0 14:0 15:0 #
-0.17548864889023729762840275725466 1:1 2:0 3:0 4:0 5:0 6:0 7:1 8:1 9:0 10:0 11:0 12:0 13:0 14:0 15:0 #
-0.17548864889023729762840275725466 1:1 2:0 3:0 4:0 5:0 6:1 7:1 8:1 9:0 10:0 11:0 12:0 13:0 14:0 15:0 #
0.17548864889023729762840275725466 1:1 2:0 3:0 4:0 5:1 6:1 7:1 8:1 9:1 10:0 11:0 12:0 13:1 14:1 15:0 #
-0.17548864889023729762840275725466 1:0 2:0 3:0 4:0 5:1 6:1 7:1 8:1 9:1 10:1 11:0 12:0 13:1 14:1 15:0 #
0.17548864889023729762840275725466 1:1 2:0 3:0 4:0 5:0 6:0 7:1 8:1 9:0 10:0 11:0 12:0 13:0 14:0 15:0 #
-0.17548864889023729762840275725466 1:1 2:0 3:0 4:0 5:1 6:0 7:1 8:1 9:0 10:0 11:0 12:0 13:0 14:0 15:0 #
0.17548864889023729762840275725466 1:0 2:0 3:0 4:0 5:1 6:1 7:1 8:1 9:1 10:1 11:0 12:0 13:0 14:0 15:0 #
0.17548864889023729762840275725466 1:1 2:0 3:0 4:0 5:0 6:1 7:1 8:1 9:0 10:0 11:0 12:0 13:1 14:0 15:0 #
-0.17548864889023729762840275725466 1:0 2:0 3:0 4:0 5:1 6:1 7:1 8:1 9:1 10:1 11:0 12:0 13:1 14:0 15:0 #
0.17548864889023729762840275725466 1:1 2:0 3:0 4:0 5:1 6:0 7:1 8:1 9:0 10:0 11:0 12:0 13:0 14:0 15:0 #
-0.17548864889023729762840275725466 1:1 2:0 3:0 4:0 5:1 6:0 7:1 8:1 9:0 10:0 11:0 12:0 13:0 14:0 15:0 #
0.17548864889023729762840275725466 1:0 2:1 3:0 4:0 5:1 6:1 7:1 8:1 9:1 10:1 11:0 12:0 13:1 14:1 15:0 #
-0.17548864889023729762840275725466 1:0 2:0 3:0 4:0 5:1 6:1 7:1 8:1 9:1 10:1 11:0 12:0 13:1 14:1 15:0 #
0.17548864889023729762840275725466 1:1 2:0 3:0 4:0 5:1 6:0 7:1 8:1 9:0 10:0 11:0 12:0 13:0 14:0 15:0 #
-0.17548864889023729762840275725466 1:1 2:0 3:0 4:0 5:0 6:1 7:1 8:1 9:0 10:0 11:0 12:0 13:0 14:0 15:0 #
0.17548864889023729762840275725466 1:0 2:0 3:0 4:0 5:1 6:1 7:1 8:1 9:1 10:1 11:0 12:0 13:0 14:0 15:0 #
-0.17548864889023729762840275725466 1:1 2:0 3:0 4:0 5:1 6:0 7:1 8:1 9:0 10:0 11:0 12:0 13:0 14:0 15:0 #
0.17548864889023729762840275725466 1:1 2:0 3:0 4:0 5:0 6:1 7:1 8:1 9:0 10:0 11:0 12:0 13:0 14:0 15:0 #
-0.17548864889023729762840275725466 1:1 2:0 3:0 4:0 5:0 6:1 7:1 8:1 9:0 10:0 11:0 12:0 13:0 14:0 15:0 #
-0.17548864889023729762840275725466 1:1 2:0 3:0 4:0 5:1 6:1 7:1 8:1 9:1 10:0 11:0 12:0 13:0 14:0 15:0 #
0.17548864889023729762840275725466 1:1 2:0 3:0 4:0 5:1 6:0 7:1 8:1 9:0 10:0 11:0 12:0 13:1 14:0 15:0 #
0.17548864889023729762840275725466 1:1 2:0 3:0 4:0 5:1 6:0 7:1 8:1 9:0 10:0 11:0 12:0 13:0 14:0 15:0 #
-0.17548864889023729762840275725466 1:0 2:0 3:0 4:0 5:1 6:0 7:1 8:1 9:0 10:1 11:0 12:0 13:1 14:0 15:0 #
0.17548864889023729762840275725466 1:1 2:0 3:0 4:0 5:1 6:1 7:1 8:1 9:1 10:0 11:0 12:0 13:0 14:0 15:0 #
-0.17548864889023729762840275725466 1:1 2:0 3:0 4:0 5:1 6:1 7:1 8:1 9:0 10:0 11:0 12:0 13:0 14:0 15:0 #
0.17548864889023729762840275725466 1:0 2:0 3:0 4:0 5:1 6:1 7:1 8:1 9:1 10:1 11:0 12:0 13:0 14:0 15:0 #
0.17548864889023729762840275725466 1:1 2:0 3:0 4:0 5:0 6:0 7:1 8:1 9:0 10:0 11:0 12:0 13:0 14:0 15:0 #
0.17548864889023729762840275725466 1:1 2:0 3:0 4:0 5:0 6:1 7:1 8:1 9:0 10:0 11:0 12:0 13:1 14:0 15:0 #
-0.17548864889023729762840275725466 1:1 2:0 3:0 4:0 5:0 6:0 7:1 8:1 9:0 10:0 11:0 12:0 13:0 14:0 15:0 #
-0.17548864889023729762840275725466 1:1 2:0 3:0 4:0 5:0 6:1 7:1 8:1 9:0 10:0 11:0 12:0 13:0 14:0 15:0 #
0.17548864889023729762840275725466 1:1 2:0 3:0 4:0 5:1 6:1 7:1 8:1 9:0 10:0 11:0 12:0 13:0 14:1 15:0 #
-0.17548864889023729762840275725466 1:1 2:0 3:0 4:0 5:1 6:0 7:1 8:1 9:0 10:0 11:0 12:0 13:0 14:0 15:0 #
0.17548864889023729762840275725466 1:1 2:0 3:0 4:0 5:0 6:1 7:1 8:1 9:0 10:0 11:0 12:0 13:0 14:0 15:0 #
-0.17548864889023729762840275725466 1:1 2:0 3:0 4:0 5:0 6:1 7:1 8:1 9:0 10:0 11:0 12:0 13:0 14:0 15:0 #
-0.17548864889023729762840275725466 1:1 2:0 3:0 4:0 5:1 6:1 7:1 8:1 9:0 10:0 11:0 12:0 13:0 14:0 15:0 #
0.17548864889023729762840275725466 1:1 2:0 3:0 4:0 5:1 6:0 7:1 8:1 9:0 10:0 11:0 12:0 13:0 14:0 15:0 #
0.17548864889023729762840275725466 1:1 2:0 3:0 4:0 5:1 6:1 7:1 8:1 9:1 10:0 11:0 12:0 13:0 14:0 15:0 #
-0.17548864889023729762840275725466 1:0 2:0 3:0 4:0 5:1 6:1 7:1 8:1 9:1 10:1 11:0 12:0 13:1 14:1 15:0 #
0.17548864889023729762840275725466 1:1 2:0 3:0 4:0 5:0 6:0 7:1 8:1 9:0 10:0 11:0 12:0 13:0 14:0 15:0 #
-0.17548864889023729762840275725466 1:1 2:0 3:0 4:0 5:0 6:0 7:1 8:1 9:0 10:0 11:0 12:0 13:0 14:0 15:0 #
-0.17548864889023729762840275725466 1:1 2:0 3:0 4:0 5:1 6:0 7:1 8:1 9:0 10:0 11:0 12:0 13:0 14:0 15:0 #
0.17548864889023729762840275725466 1:0 2:1 3:0 4:0 5:1 6:1 7:1 8:1 9:1 10:1 11:0 12:0 13:1 14:1 15:0 #
-0.17548864889023729762840275725466 1:0 2:0 3:0 4:0 5:1 6:1 7:1 8:1 9:1 10:1 11:0 12:0 13:1 14:1 15:0 #
0.17548864889023729762840275725466 1:1 2:0 3:0 4:0 5:1 6:0 7:1 8:1 9:0 10:0 11:0 12:0 13:0 14:0 15:0 #
0.17548864889023729762840275725466 1:1 2:0 3:0 4:0 5:1 6:1 7:1 8:1 9:0 10:0 11:0 12:0 13:0 14:1 15:0 #
-0.17548864889023729762840275725466 1:1 2:0 3:0 4:0 5:1 6:1 7:1 8:1 9:0 10:0 11:0 12:0 13:0 14:0 15:0 #
0.17548864889023729762840275725466 1:1 2:0 3:0 4:0 5:0 6:0 7:1 8:1 9:0 10:0 11:0 12:0 13:0 14:0 15:0 #
-0.17548864889023729762840275725466 1:1 2:0 3:0 4:0 5:1 6:0 7:1 8:1 9:0 10:0 11:0 12:0 13:0 14:0 15:0 #
-0.17548864889023729762840275725466 1:1 2:0 3:0 4:0 5:0 6:1 7:1 8:1 9:0 10:0 11:0 12:0 13:0 14:0 15:0 #
0.17548864889023729762840275725466 1:0 2:0 3:0 4:0 5:1 6:1 7:1 8:1 9:0 10:0 11:0 12:1 13:0 14:0 15:0 #
0.17548864889023729762840275725466 1:1 2:0 3:0 4:0 5:1 6:1 7:1 8:1 9:1 10:0 11:0 12:0 13:0 14:0 15:0 #
-0.17548864889023729762840275725466 1:0 2:0 3:0 4:0 5:1 6:1 7:1 8:1 9:1 10:0 11:0 12:0 13:0 14:0 15:0 #
0.17548864889023729762840275725466 1:1 2:0 3:0 4:0 5:0 6:0 7:1 8:1 9:0 10:0 11:0 12:0 13:0 14:0 15:0 #
-0.17548864889023729762840275725466 1:1 2:0 3:0 4:0 5:1 6:0 7:1 8:1 9:0 10:0 11:0 12:0 13:0 14:0 15:0 #
-0.17548864889023729762840275725466 1:1 2:0 3:0 4:0 5:0 6:0 7:1 8:1 9:0 10:1 11:0 12:0 13:0 14:1 15:0 #
0.17548864889023729762840275725466 1:1 2:0 3:0 4:0 5:1 6:1 7:1 8:1 9:1 10:0 11:0 12:0 13:0 14:0 15:0 #
0.17548864889023729762840275725466 1:1 2:0 3:0 4:0 5:1 6:1 7:1 8:1 9:0 10:0 11:0 12:0 13:0 14:0 15:0 #
-0.17548864889023729762840275725466 1:1 2:0 3:0 4:0 5:1 6:1 7:1 8:1 9:0 10:0 11:0 12:0 13:0 14:0 15:0 #
0.17548864889023729762840275725466 1:1 2:0 3:0 4:0 5:0 6:0 7:1 8:1 9:0 10:0 11:0 12:0 13:0 14:0 15:0 #
-0.17548864889023729762840275725466 1:1 2:0 3:0 4:0 5:1 6:0 7:1 8:1 9:0 10:0 11:0 12:0 13:0 14:0 15:0 #
0.17548864889023729762840275725466 1:1 2:0 3:0 4:0 5:1 6:1 7:1 8:1 9:0 10:0 11:0 12:0 13:1 14:1 15:0 #
0.17548864889023729762840275725466 1:1 2:0 3:0 4:0 5:1 6:0 7:1 8:1 9:0 10:0 11:0 12:0 13:0 14:0 15:0 #
0.17548864889023729762840275725466 1:1 2:0 3:0 4:0 5:0 6:0 7:1 8:1 9:0 10:0 11:0 12:0 13:0 14:0 15:0 #
0.17548864889023729762840275725466 1:1 2:0 3:0 4:0 5:1 6:1 7:1 8:1 9:0 10:0 11:0 12:0 13:0 14:1 15:0 #
0.17548864889023729762840275725466 1:0 2:0 3:0 4:0 5:0 6:0 7:1 8:1 9:0 10:1 11:0 12:1 13:0 14:0 15:0 #
-0.17548864889023729762840275725466 1:1 2:0 3:0 4:0 5:1 6:0 7:1 8:1 9:0 10:0 11:0 12:0 13:0 14:0 15:0 #
-0.17548864889023729762840275725466 1:1 2:0 3:0 4:0 5:1 6:1 7:1 8:1 9:0 10:0 11:0 12:0 13:0 14:0 15:0 #
0.17548864889023729762840275725466 1:1 2:0 3:0 4:0 5:1 6:1 7:1 8:1 9:0 10:1 11:0 12:0 13:0 14:1 15:0 #
0.17548864889023729762840275725466 1:0 2:0 3:1 4:0 5:1 6:1 7:1 8:1 9:0 10:1 11:0 12:1 13:0 14:0 15:0 #
-0.17548864889023729762840275725466 1:1 2:0 3:0 4:0 5:1 6:1 7:1 8:1 9:0 10:0 11:0 12:0 13:0 14:0 15:0 #
-0.17548864889023729762840275725466 1:1 2:0 3:0 4:0 5:1 6:1 7:1 8:1 9:0 10:0 11:0 12:0 13:0 14:0 15:0 #
0.17548864889023729762840275725466 1:1 2:0 3:0 4:0 5:1 6:0 7:1 8:1 9:0 10:1 11:0 12:0 13:0 14:0 15:0 #
0.17548864889023729762840275725466 1:1 2:0 3:0 4:0 5:1 6:1 7:1 8:1 9:0 10:1 11:0 12:0 13:0 14:0 15:0 #
-0.17548864889023729762840275725466 1:1 2:0 3:0 4:0 5:1 6:1 7:1 8:1 9:0 10:0 11:0 12:0 13:0 14:0 15:0 #
-0.17548864889023729762840275725466 1:1 2:0 3:0 4:0 5:1 6:1 7:1 8:1 9:0 10:0 11:0 12:0 13:0 14:0 15:0 #
0.17548864889023729762840275725466 1:1 2:0 3:0 4:0 5:1 6:1 7:1 8:1 9:0 10:0 11:0 12:0 13:0 14:0 15:0 #
-0.17548864889023729762840275725466 1:1 2:0 3:0 4:0 5:1 6:1 7:1 8:1 9:0 10:0 11:0 12:0 13:0 14:0 15:0 #
0.17548864889023729762840275725466 1:1 2:0 3:0 4:0 5:1 6:1 7:1 8:1 9:0 10:0 11:0 12:0 13:0 14:0 15:0 #
-0.17548864889023729762840275725466 1:0 2:0 3:0 4:0 5:0 6:0 7:1 8:1 9:0 10:1 11:0 12:0 13:1 14:1 15:0 #
-0.17548864889023729762840275725466 1:1 2:0 3:0 4:0 5:1 6:1 7:1 8:1 9:1 10:1 11:0 12:0 13:0 14:0 15:0 #
-0.17548864889023729762840275725466 1:1 2:0 3:0 4:0 5:1 6:1 7:1 8:1 9:0 10:0 11:0 12:0 13:0 14:0 15:0 #
0.17548864889023729762840275725466 1:1 2:0 3:0 4:0 5:1 6:0 7:1 8:1 9:0 10:1 11:0 12:0 13:0 14:0 15:0 #
0.17548864889023729762840275725466 1:1 2:0 3:0 4:0 5:1 6:0 7:1 8:1 9:0 10:0 11:0 12:0 13:0 14:0 15:0 #
0.17548864889023729762840275725466 1:1 2:0 3:0 4:0 5:1 6:0 7:1 8:1 9:0 10:0 11:0 12:0 13:1 14:0 15:0 #
-0.17548864889023729762840275725466 1:0 2:0 3:0 4:0 5:0 6:0 7:1 8:1 9:0 10:0 11:0 12:0 13:1 14:0 15:0 #
0.17548864889023729762840275725466 1:1 2:0 3:0 4:0 5:1 6:1 7:1 8:1 9:1 10:0 11:0 12:0 13:0 14:0 15:0 #
-0.17548864889023729762840275725466 1:1 2:0 3:0 4:0 5:1 6:1 7:1 8:1 9:0 10:0 11:0 12:0 13:0 14:0 15:0 #
0.17548864889023729762840275725466 1:1 2:0 3:0 4:0 5:1 6:1 7:1 8:1 9:0 10:1 11:0 12:0 13:0 14:0 15:0 #
-0.17548864889023729762840275725466 1:1 2:0 3:0 4:0 5:1 6:1 7:1 8:1 9:0 10:0 11:0 12:0 13:0 14:0 15:0 #
0.17548864889023729762840275725466 1:1 2:0 3:0 4:0 5:1 6:1 7:1 8:1 9:1 10:0 11:0 12:0 13:0 14:0 15:0 #
0.17548864889023729762840275725466 1:1 2:0 3:0 4:0 5:1 6:1 7:1 8:1 9:0 10:1 11:0 12:0 13:0 14:0 15:0 #
-0.17548864889023729762840275725466 1:1 2:0 3:0 4:0 5:1 6:1 7:1 8:1 9:1 10:1 11:0 12:0 13:0 14:0 15:0 #
0.17548864889023729762840275725466 1:1 2:0 3:0 4:0 5:1 6:1 7:1 8:1 9:0 10:0 11:0 12:0 13:0 14:0 15:0 #
-0.17548864889023729762840275725466 1:1 2:0 3:0 4:0 5:1 6:1 7:1 8:1 9:0 10:0 11:0 12:0 13:0 14:0 15:0 #
-0.17548864889023729762840275725466 1:1 2:0 3:0 4:0 5:1 6:1 7:1 8:1 9:0 10:0 11:0 12:0 13:0 14:0 15:0 #
0.17548864889023729762840275725466 1:1 2:0 3:0 4:0 5:1 6:1 7:1 8:1 9:1 10:0 11:0 12:0 13:0 14:0 15:0 #
0.17548864889023729762840275725466 1:1 2:0 3:0 4:0 5:1 6:1 7:1 8:1 9:0 10:1 11:0 12:0 13:0 14:0 15:0 #
-0.17548864889023729762840275725466 1:1 2:0 3:0 4:0 5:1 6:1 7:1 8:1 9:1 10:1 11:0 12:0 13:0 14:0 15:0 #
0.17548864889023729762840275725466 1:1 2:0 3:0 4:0 5:1 6:1 7:1 8:1 9:0 10:0 11:0 12:0 13:0 14:0 15:0 #
-0.17548864889023729762840275725466 1:1 2:0 3:0 4:0 5:1 6:1 7:1 8:1 9:0 10:0 11:0 12:0 13:0 14:0 15:0 #
-0.17548864889023729762840275725466 1:1 2:0 3:0 4:0 5:1 6:1 7:1 8:1 9:0 10:0 11:0 12:0 13:0 14:0 15:0 #
0.17548864889023729762840275725466 1:1 2:0 3:0 4:0 5:1 6:1 7:1 8:1 9:0 10:1 11:0 12:0 13:0 14:0 15:0 #
-0.17548864889023729762840275725466 1:1 2:0 3:0 4:0 5:1 6:1 7:1 8:1 9:0 10:0 11:0 12:0 13:0 14:0 15:0 #
-0.17548864889023729762840275725466 1:0 2:0 3:0 4:0 5:0 6:0 7:1 8:1 9:0 10:1 11:0 12:0 13:1 14:1 15:0 #
0.17548864889023729762840275725466 1:1 2:0 3:0 4:0 5:1 6:1 7:1 8:1 9:0 10:0 11:0 12:0 13:0 14:0 15:0 #
-0.17548864889023729762840275725466 1:1 2:0 3:0 4:0 5:1 6:1 7:1 8:1 9:0 10:0 11:0 12:0 13:0 14:0 15:0 #
0.17548864889023729762840275725466 1:1 2:0 3:0 4:0 5:1 6:1 7:1 8:1 9:0 10:0 11:0 12:0 13:0 14:0 15:0 #
-0.17548864889023729762840275725466 1:1 2:0 3:0 4:0 5:1 6:1 7:1 8:1 9:0 10:0 11:0 12:0 13:0 14:0 15:0 #
0.17548864889023729762840275725466 1:1 2:0 3:0 4:0 5:1 6:1 7:1 8:1 9:0 10:0 11:0 12:0 13:0 14:0 15:0 #
-0.17548864889023729762840275725466 1:0 2:0 3:0 4:0 5:0 6:0 7:1 8:1 9:0 10:1 11:0 12:0 13:1 14:1 15:0 #
0.17548864889023729762840275725466 1:1 2:0 3:0 4:0 5:1 6:1 7:1 8:1 9:0 10:0 11:0 12:0 13:0 14:0 15:0 #
-0.17548864889023729762840275725466 1:0 2:0 3:0 4:0 5:1 6:1 7:1 8:1 9:1 10:1 11:0 12:0 13:0 14:1 15:0 #
0.17548864889023729762840275725466 1:0 2:0 3:0 4:1 5:1 6:1 7:0 8:0 9:1 10:0 11:0 12:1 13:1 14:1 15:0 #
0.17548864889023729762840275725466 1:1 2:0 3:0 4:0 5:1 6:1 7:1 8:1 9:0 10:0 11:0 12:0 13:1 14:0 15:0 #
-0.17548864889023729762840275725466 1:0 2:0 3:0 4:0 5:1 6:1 7:1 8:1 9:1 10:1 11:0 12:0 13:0 14:0 15:0 #
-0.17548864889023729762840275725466 1:0 2:0 3:0 4:0 5:1 6:0 7:1 8:1 9:0 10:0 11:0 12:0 13:0 14:0 15:0 #
0.17548864889023729762840275725466 1:0 2:1 3:0 4:0 5:0 6:0 7:1 8:1 9:0 10:1 11:0 12:0 13:0 14:0 15:0 #
-0.17548864889023729762840275725466 1:0 2:0 3:0 4:0 5:0 6:0 7:1 8:1 9:0 10:0 11:0 12:0 13:1 14:0 15:0 #
0.17548864889023729762840275725466 1:1 2:0 3:0 4:0 5:0 6:1 7:1 8:1 9:0 10:1 11:0 12:0 13:0 14:1 15:0 #
0.17548864889023729762840275725466 1:0 2:0 3:0 4:0 5:0 6:0 7:1 8:1 9:0 10:1 11:0 12:1 13:0 14:1 15:0 #
0.17548864889023729762840275725466 1:1 2:0 3:0 4:0 5:0 6:0 7:1 8:1 9:0 10:1 11:0 12:0 13:0 14:1 15:0 #
0.17548864889023729762840275725466 1:0 2:1 3:0 4:0 5:0 6:0 7:1 8:1 9:0 10:1 11:0 12:0 13:0 14:0 15:0 #
-0.17548864889023729762840275725466 1:0 2:0 3:0 4:0 5:0 6:0 7:1 8:1 9:0 10:1 11:0 12:0 13:0 14:0 15:0 #
-0.17548864889023729762840275725466 1:0 2:0 3:0 4:0 5:1 6:0 7:1 8:1 9:0 10:0 11:0 12:0 13:0 14:0 15:0 #
-0.17548864889023729762840275725466 1:0 2:0 3:0 4:0 5:1 6:1 7:1 8:1 9:1 10:1 11:0 12:0 13:0 14:1 15:0 #
0.17548864889023729762840275725466 1:0 2:0 3:0 4:0 5:0 6:0 7:1 8:1 9:0 10:1 11:0 12:1 13:0 14:1 15:0 #
0.17548864889023729762840275725466 1:0 2:1 3:0 4:0 5:0 6:0 7:1 8:1 9:0 10:1 11:0 12:0 13:0 14:0 15:0 #
0.17548864889023729762840275725466 1:1 2:0 3:0 4:0 5:1 6:0 7:1 8:1 9:0 10:0 11:0 12:0 13:1 14:0 15:0 #
-0.17548864889023729762840275725466 1:0 2:0 3:0 4:0 5:0 6:0 7:1 8:1 9:0 10:1 11:0 12:0 13:0 14:0 15:0 #
0.17548864889023729762840275725466 1:0 2:0 3:0 4:0 5:1 6:1 7:1 8:1 9:1 10:1 11:0 12:1 13:1 14:1 15:0 #
0.17445825310110138484098740718764 1:0 2:0 3:1 4:0 5:1 6:1 7:1 8:1 9:1 10:1 11:0 12:1 13:0 14:1 15:0 #
-0.17548864889023729762840275725466 1:0 2:0 3:0 4:0 5:0 6:0 7:1 8:1 9:0 10:1 11:0 12:0 13:0 14:1 15:0 #
-0.17548864889023729762840275725466 1:0 2:0 3:0 4:0 5:0 6:0 7:1 8:1 9:0 10:1 11:0 12:0 13:0 14:0 15:0 #
0.17548864889023729762840275725466 1:0 2:0 3:0 4:0 5:1 6:1 7:1 8:1 9:1 10:1 11:0 12:1 13:1 14:1 15:0 #
0.17548864889023729762840275725466 1:0 2:1 3:0 4:0 5:0 6:0 7:1 8:1 9:0 10:1 11:0 12:0 13:0 14:0 15:0 #
0.17548864889023729762840275725466 1:1 2:0 3:0 4:0 5:1 6:1 7:1 8:1 9:0 10:0 11:0 12:0 13:1 14:0 15:0 #
0.17548864889023729762840275725466 1:0 2:1 3:0 4:0 5:0 6:0 7:1 8:1 9:0 10:1 11:0 12:0 13:0 14:0 15:0 #
0.17548864889023729762840275725466 1:0 2:0 3:1 4:0 5:0 6:0 7:1 8:1 9:0 10:1 11:0 12:1 13:0 14:1 15:0 #
0.17548864889023729762840275725466 1:0 2:1 3:0 4:0 5:1 6:1 7:1 8:1 9:1 10:1 11:0 12:0 13:0 14:0 15:0 #
-0.17548864889023729762840275725466 1:0 2:0 3:0 4:0 5:0 6:0 7:1 8:1 9:0 10:1 11:0 12:0 13:0 14:0 15:0 #
-0.17548864889023729762840275725466 1:0 2:0 3:0 4:0 5:1 6:1 7:1 8:1 9:1 10:1 11:0 12:0 13:1 14:0 15:0 #
0.17548864889023729762840275725466 1:0 2:0 3:0 4:0 5:0 6:0 7:1 8:1 9:0 10:1 11:0 12:1 13:1 14:1 15:0 #
0.17548864889023729762840275725466 1:0 2:0 3:1 4:0 5:0 6:0 7:1 8:1 9:0 10:1 11:0 12:1 13:1 14:1 15:0 #
0.17548864889023729762840275725466 1:0 2:0 3:0 4:0 5:0 6:0 7:1 8:1 9:0 10:1 11:0 12:1 13:0 14:0 15:0 #
-0.17548864889023729762840275725466 1:0 2:0 3:0 4:0 5:0 6:0 7:1 8:1 9:0 10:1 11:0 12:0 13:1 14:0 15:0 #
0.17548864889023729762840275725466 1:1 2:0 3:0 4:0 5:1 6:1 7:1 8:1 9:0 10:0 11:0 12:0 13:0 14:1 15:0 #
-0.17548864889023729762840275725466 1:0 2:0 3:0 4:0 5:1 6:1 7:1 8:1 9:1 10:1 11:0 12:0 13:0 14:1 15:0 #
0.17548864889023729762840275725466 1:0 2:0 3:0 4:0 5:0 6:0 7:1 8:1 9:0 10:1 11:0 12:1 13:0 14:0 15:0 #
-0.17548864889023729762840275725466 1:0 2:0 3:0 4:0 5:0 6:0 7:1 8:1 9:0 10:1 11:0 12:0 13:0 14:0 15:0 #
0.17548864889023729762840275725466 1:0 2:1 3:0 4:0 5:1 6:1 7:1 8:1 9:1 10:1 11:0 12:0 13:0 14:0 15:0 #
-0.17548864889023729762840275725466 1:0 2:0 3:0 4:0 5:1 6:1 7:1 8:1 9:1 10:1 11:0 12:0 13:0 14:1 15:0 #
0.17548864889023729762840275725466 1:1 2:0 3:0 4:0 5:0 6:1 7:1 8:1 9:0 10:0 11:0 12:0 13:0 14:0 15:0 #
-0.17548864889023729762840275725466 1:0 2:0 3:0 4:0 5:1 6:0 7:1 8:1 9:0 10:0 11:0 12:0 13:0 14:0 15:0 #
0.005136722542677940595012842095457 1:1 2:0 3:0 4:0 5:1 6:1 7:1 8:1 9:0 10:0 11:0 12:0 13:1 14:0 15:0 #
-0.029475689764694223971019937380333 1:0 2:0 3:0 4:0 5:1 6:0 7:1 8:1 9:0 10:1 11:0 12:0 13:0 14:1 15:0 #
-0.17548864889023729762840275725466 1:0 2:0 3:0 4:0 5:1 6:1 7:1 8:1 9:1 10:1 11:0 12:0 13:1 14:1 15:0 #
0.17548864889023729762840275725466 1:1 2:0 3:0 4:0 5:0 6:0 7:1 8:1 9:0 10:0 11:0 12:0 13:0 14:0 15:0 #
0.17548864889023729762840275725466 1:1 2:0 3:0 4:0 5:1 6:0 7:1 8:1 9:0 10:0 11:0 12:0 13:0 14:0 15:0 #
-0.17548864889023729762840275725466 1:0 2:0 3:0 4:0 5:0 6:0 7:1 8:1 9:0 10:1 11:0 12:0 13:0 14:0 15:0 #
0.17548864889023729762840275725466 1:0 2:1 3:0 4:0 5:1 6:1 7:1 8:1 9:1 10:1 11:0 12:0 13:0 14:0 15:0 #
-0.17548864889023729762840275725466 1:0 2:0 3:0 4:0 5:0 6:1 7:1 8:1 9:0 10:1 11:0 12:0 13:1 14:0 15:0 #
0.17548864889023729762840275725466 1:0 2:0 3:0 4:0 5:1 6:1 7:1 8:1 9:1 10:1 11:0 12:1 13:0 14:1 15:0 #
0.17548864889023729762840275725466 1:0 2:0 3:0 4:0 5:0 6:0 7:1 8:1 9:0 10:1 11:0 12:1 13:1 14:1 15:0 #
0.17548864889023729762840275725466 1:0 2:0 3:0 4:0 5:1 6:1 7:1 8:1 9:1 10:1 11:0 12:1 13:1 14:0 15:0 #
-0.17548864889023729762840275725466 1:0 2:0 3:0 4:0 5:1 6:0 7:1 8:1 9:0 10:0 11:0 12:0 13:0 14:0 15:0 #
-0.17548864889023729762840275725466 1:0 2:0 3:0 4:0 5:0 6:1 7:1 8:1 9:0 10:1 11:0 12:0 13:1 14:0 15:0 #
-0.17548864889023729762840275725466 1:0 2:0 3:0 4:0 5:0 6:1 7:1 8:1 9:0 10:1 11:0 12:0 13:0 14:1 15:0 #
0.17548864889023729762840275725466 1:1 2:0 3:0 4:0 5:1 6:1 7:1 8:1 9:1 10:0 11:0 12:0 13:1 14:0 15:0 #
-0.17548864889023729762840275725466 1:0 2:0 3:0 4:0 5:1 6:0 7:1 8:1 9:0 10:0 11:0 12:0 13:0 14:0 15:0 #
0.17548864889023729762840275725466 1:0 2:1 3:0 4:0 5:1 6:0 7:1 8:1 9:0 10:1 11:0 12:0 13:0 14:0 15:0 #
0.17548864889023729762840275725466 1:0 2:0 3:0 4:0 5:0 6:0 7:1 8:1 9:0 10:1 11:0 12:1 13:0 14:0 15:0 #
0.17548864889023729762840275725466 1:1 2:0 3:0 4:0 5:0 6:1 7:1 8:1 9:0 10:0 11:0 12:0 13:0 14:0 15:0 #
-0.17548864889023729762840275725466 1:0 2:0 3:0 4:0 5:1 6:1 7:1 8:1 9:0 10:1 11:0 12:0 13:0 14:0 15:0 #
-0.17548864889023729762840275725466 1:0 2:0 3:0 4:0 5:1 6:1 7:1 8:1 9:0 10:1 11:0 12:0 13:0 14:0 15:0 #
0.17548864889023729762840275725466 1:1 2:0 3:0 4:0 5:0 6:0 7:1 8:1 9:0 10:0 11:0 12:0 13:0 14:0 15:0 #
-0.17548864889023729762840275725466 1:0 2:0 3:0 4:0 5:1 6:1 7:1 8:1 9:0 10:1 11:0 12:0 13:0 14:0 15:0 #
0.083431542272044634245276029105298 1:0 2:0 3:0 4:1 5:1 6:0 7:1 8:1 9:0 10:1 11:0 12:1 13:1 14:0 15:0 #
0.13597148350749316270125177652517 1:1 2:0 3:0 4:0 5:0 6:0 7:1 8:1 9:0 10:0 11:0 12:0 13:0 14:0 15:0 #
0.029851925551254140933643554944865 1:1 2:0 3:0 4:0 5:0 6:1 7:1 8:1 9:0 10:0 11:0 12:0 13:0 14:0 15:0 #
-0.12244825180160479050073263351806 1:0 2:0 3:0 4:0 5:1 6:1 7:1 8:1 9:1 10:1 11:0 12:0 13:0 14:0 15:0 #
-0.15389833161386920479252182758501 1:0 2:0 3:0 4:0 5:1 6:1 7:1 8:1 9:1 10:1 11:0 12:0 13:1 14:0 15:0 #
-0.17548864889023729762840275725466 1:0 2:0 3:0 4:0 5:1 6:1 7:1 8:1 9:1 10:1 11:0 12:0 13:0 14:0 15:0 #
-0.0814528547939170899372385292736 1:0 2:0 3:0 4:0 5:0 6:0 7:1 8:1 9:0 10:1 11:0 12:0 13:0 14:1 15:0 #
0.17548864889023729762840275725466 1:0 2:0 3:0 4:0 5:1 6:1 7:1 8:1 9:1 10:1 11:0 12:1 13:0 14:0 15:0 #
0.17548864889023729762840275725466 1:0 2:0 3:0 4:0 5:0 6:0 7:1 8:1 9:0 10:1 11:0 12:1 13:0 14:0 15:0 #
-0.13375360408440895021442429424496 1:0 2:0 3:0 4:0 5:0 6:0 7:1 8:1 9:0 10:1 11:0 12:0 13:0 14:1 15:0 #
-0.038325385664017330711317299574148 1:0 2:0 3:0 4:0 5:1 6:1 7:1 8:1 9:1 10:1 11:0 12:0 13:0 14:0 15:0 #
-0.086008022227785696500745871162508 1:0 2:0 3:0 4:0 5:1 6:0 7:1 8:1 9:0 10:1 11:0 12:0 13:0 14:1 15:0 #
-0.026868305882013145124975750377416 1:0 2:0 3:0 4:0 5:0 6:1 7:1 8:1 9:0 10:1 11:0 12:0 13:0 14:1 15:0 #
0.17548864889023729762840275725466 1:0 2:0 3:0 4:0 5:1 6:1 7:1 8:1 9:1 10:1 11:0 12:1 13:0 14:0 15:0 #
0.0062035839972329753777557925786823 1:1 2:0 3:0 4:0 5:1 6:1 7:1 8:1 9:0 10:0 11:0 12:0 13:1 14:1 15:0 #
0.002820640161586673855254048248753 1:0 2:0 3:1 4:0 5:1 6:1 7:1 8:1 9:0 10:1 11:0 12:1 13:1 14:0 15:0 #
0.029755846239940791919664775377896 1:0 2:0 3:0 4:0 5:1 6:1 7:1 8:1 9:1 10:1 11:0 12:1 13:0 14:0 15:0 #
3.1580396886443651283116196282208e-07 1:1 2:0 3:0 4:0 5:1 6:1 7:1 8:1 9:0 10:1 11:0 12:0 13:0 14:1 15:0 #
